function [y1] = myNeuralNetworkFunction(x1)
%MYNEURALNETWORKFUNCTION neural network simulation function.
%
% Generated by Neural Network Toolbox function genFunction, 09-Jan-2018 15:20:49.
% 
% [y1] = myNeuralNetworkFunction(x1) takes these arguments:
%   x = 50xQ matrix, input #1
% and returns:
%   y = 5xQ matrix, output #1
% where Q is the number of samples.

%#ok<*RPMT0>

  % ===== NEURAL NETWORK CONSTANTS =====
  
  % Input 1
  x1_step1_xoffset = [6;4;12;31;15;0;2;2;3;7;2;0;24;0;3;3;14;3;1;0;4;3;49;0;1;6;0;19;21;7;8;7;14;18;0;1;6;28;18;8;2;9;23;10;7;1;1;1;12;4];
  x1_step1_gain = [0.00202429149797571;0.00201207243460765;0.0020703933747412;0.00206825232678387;0.00208550573514077;0.00202429149797571;0.00203665987780041;0.00200601805416249;0.00203873598369011;0.00204918032786885;0.00202634245187437;0.002002002002002;0.00205549845837616;0.00201005025125628;0.00205338809034908;0.00201612903225806;0.00203665987780041;0.00208550573514077;0.00200400801603206;0.00200601805416249;0.00204081632653061;0.00201612903225806;0.00210304942166141;0.00204290091930541;0.00200803212851406;0.00203045685279188;0.00200601805416249;0.00208333333333333;0.00205549845837616;0.00210748155953635;0.00208550573514077;0.00207253886010363;0.00211416490486258;0.00207684319833853;0.00201207243460765;0.00200400801603206;0.00201816347124117;0.0020703933747412;0.00206825232678387;0.00207253886010363;0.00202634245187437;0.00202839756592292;0.00204918032786885;0.00203252032520325;0.00207684319833853;0.00211864406779661;0.00201816347124117;0.00201207243460765;0.00206611570247934;0.00201005025125628];
  x1_step1_ymin = -1;
  
  % Layer 1
  b1 = [-0.23636089527422652;-0.044364984898121337;0.045011929217906844;0.045098380087395466;-0.51490607112166087;0.044326897184798944;0.0052276519136029691;-0.24733569276623316;-0.63004708307654622;0.27599529424833097;-0.004103348357309934;-0.2711990436935125;-0.27636092042049759;0.044895676733349099;-0.0064296346488537477;-0.045104855375635078;0.010778656902471213;0.2398881851623379;0.013427622025815848;-0.014187045279406688;-0.62314869282657648;-0.053199038070422026;0.39232595204785981;-0.43428385111280032;0.010649205873989688;-0.0041326105679329256;0.15580356651461061;0.010771415029214478;-0.37362369120730365;-0.26947362387043511];
  IW1_1 = [-0.13345415611572897 0.0011475704001047142 0.0078596840949963567 0.10975501391978183 0.040392118597745802 0.020371448755867619 -0.064867562725158798 0.11309682875521902 -0.07330268087888292 0.048675764863658211 0.015747026861264529 -0.055284720179077811 0.024940692912995204 0.024758685160985502 0.026001407320869668 0.12384745056018162 0.041496418365963662 0.072974972551500553 -0.039204672885812086 0.050857075193779473 0.089462891784019533 -0.065660241688602614 0.072538017935550245 0.031959319086756602 -0.044592130797920876 -0.0040241359120395418 -0.019106961144253223 -0.000322344173199516 -0.00841930353684032 -0.027502939926963704 -0.068310774884393133 -0.071623024454008963 -0.078855984174133961 -0.080268762920861478 -0.01892879494156962 -0.065494616732484842 -0.17476982021271023 -0.1564246044220538 0.065512334038100736 -0.096246190003376961 0.063417936240802775 0.038413482234220059 -0.078943395404785829 -0.027944009605547916 0.10822840964804367 -0.089382612667004646 -0.1425125515005613 -0.060549881563180731 0.15712474736682958 -0.076121138988474765;0.0048729681547498953 -0.036935351392194782 0.015120700386875643 -0.026006180160610098 0.027386837914717098 -0.0012186252361065938 0.0033094548989819192 -0.034236565530648438 0.0032507153902719527 -0.054256363261788981 -0.026210072974727189 0.051860683965352011 -0.0033244723801645983 0.010862356725760176 0.046029720796335209 -0.069761606040556257 -0.073688848109938643 -0.0024002127264920203 -0.038047618960367409 -0.030491383211630547 -0.036496661915007833 -0.0055648103468569632 -0.045328246021842586 0.023301382803338207 0.020682456021876267 0.044117993985663795 0.026930166392213715 -0.03599570875289887 -0.017757826741663738 0.050068057754944321 -0.051859254908544004 -0.015040753024890455 0.02339275016018233 -0.013392540390466872 -0.0067297706931074182 0.026648277973566226 0.033868164594205538 0.0035801761970528445 -0.004254596327242558 -0.0046184892694688395 -0.014214831728968412 0.047634711045971521 -0.0046304321075199871 -0.024523790982808016 0.053893272488788377 -0.015984842951328886 0.024334260939775833 -0.0094625920852898192 0.003633389658142902 -0.03028584492687553;-0.0048914718349121547 0.037000732465934612 -0.015296608465903402 0.026114921945962738 -0.027405605953035213 0.0013818898053161212 -0.0033660086987826092 0.034235403403945208 -0.0033616814739095904 0.054319208629368183 0.026212948307319236 -0.051842225293476936 0.0033006719446527374 -0.010924294107263232 -0.046097175125999527 0.069850790447417918 0.073710656721506188 0.0023634668169936609 0.038064086707568653 0.030414278513756665 0.036532120094077622 0.005618610335489372 0.045294893399878751 -0.023281539787401141 -0.020726361539941594 -0.044219190549248992 -0.026957547716452875 0.036152319338278414 0.017686963432505719 -0.050132610355167424 0.052113132001919832 0.015087442332566921 -0.023354328240166779 0.013530845085041179 0.0066094166125312695 -0.02654915083951918 -0.033917646710633326 -0.0034714518662810126 0.0042821271746810372 0.0046500739442888956 0.014223517202479354 -0.047716386777456127 0.0047209961288448435 0.024635119906162153 -0.05406277021673344 0.016065493809027019 -0.024260605572532342 0.0094744803067746443 -0.003738423805201493 0.030171038898602152;-0.0048939303897523661 0.037009406346256338 -0.01532009996072174 0.026129482479136101 -0.027408163726199346 0.0014036442925916927 -0.003373546049585615 0.034235199070362585 -0.0033764992767591788 0.054327627371473862 0.026213326336890299 -0.051839750833042063 0.0032974584351640494 -0.010932516363491169 -0.046106227349063486 0.069862705768545433 0.07371371686154006 0.0023584399268953872 0.038066412314420491 0.030404047160785916 0.036536855873029642 0.0056258060293999388 0.0452904794990239 -0.0232788832403776 -0.020732251228816133 -0.044232730036630676 -0.026961233884340938 0.03617317888350309 0.017677600997469515 -0.050141228787273749 0.052147088056478302 0.015093712485741958 -0.023349163529633128 0.013549321561475557 0.0065933170244054486 -0.026535973595566874 -0.033924261624207676 -0.0034569216608025663 0.0042857529215689846 0.0046543631835941086 0.014224656573427648 -0.04772739472509608 0.0047331240325364128 0.024650060539172489 -0.054085443871035546 0.016076298753152845 -0.02425083671432977 0.0094761109153217362 -0.0037524986633509457 0.030155770586214943;0.063164951461141941 -0.13783323930512692 0.080011849352894973 -0.036471845882437313 -0.090799469192260854 -0.044792799671885104 -0.014531872042625358 0.051426749483449219 -0.16470938595327611 0.011522073756200813 -0.01062615646770348 0.025940701964304345 -0.10322402917586668 0.081818940254909003 0.02500595004347194 -0.06830452494556824 -0.0080970202865060289 -0.16332262540187412 0.070683399448456974 0.035619760214652497 0.022031424570231786 -0.091566136633460277 0.12030811658666742 0.061816997917796157 0.099005345341934919 -0.041767676530769057 -0.013692265698251715 -0.077594691880202363 0.024222531190551348 -0.10035834212199236 0.030879195757299548 -0.10747673478960246 -0.031316036021795252 -0.097294945038260888 0.17866159056762768 -0.058447840977629999 0.065512584028949133 -0.11490019595176655 0.063140917106576266 0.034130349030929034 -0.048044272642056317 -0.017101750822843681 0.02485855713858302 0.082117443963326625 0.051438640865998905 -0.1519483363132563 -0.093738604268283635 -0.084323155414933737 0.068823907724802721 0.058400827592759733;-0.0048718732039769912 0.036931475424599174 -0.015110334554783359 0.025999788895792571 -0.027385753609826324 0.0012089893346979947 -0.0033061170135328622 0.034236615082471708 -0.0032441780582382691 0.054252672341835805 0.02620990206042173 -0.05186176343445964 0.0033258592784837886 -0.010858683161967241 -0.046025762630786012 0.069756352153609605 0.073687625443482049 0.0024023244841272465 0.038046699101571123 0.030495953110489346 0.036494572951519699 0.0055616457644005832 0.045330226913142181 -0.023302546860241767 -0.020679878862568418 -0.044112041501878245 -0.026928564526676413 0.035986457173523535 0.017762043614361803 -0.050064252626753465 0.051844320012535604 0.015038016603716163 -0.023395000187020593 0.013384396286718931 0.0067368495642271516 -0.026654144273959585 -0.033865250292521215 -0.0035865780255680464 0.0042529520878563497 0.0046166582738856789 0.014214308533976355 -0.047629940107339168 0.0046251112032960609 0.02451726250271484 -0.053883301287617529 0.015980106626777554 -0.024338629223149753 0.0094619088247883416 -0.0036272215296886735 0.030292635987062486;-0.026326784286960673 0.048662933871093224 0.019951881326225274 -0.072924618653965323 0.10118622291248211 0.056489259283409483 0.092254603362047549 -0.02963243938972281 -0.027109153438861996 -0.016326015949969828 -0.092667195009508527 0.066264606397180348 0.067871672290502477 -0.06992950873074634 -0.0078911059165432933 -0.036860987629499103 -0.066347001850242546 0.063498958107200978 0.029630878359854028 0.021573529047168982 0.07442199689704726 -0.14637304379481664 0.054804637059368826 0.020523333889942236 -0.075023243748105067 0.04708496907212651 0.025007575923605918 -0.066044409443602473 -0.046417972581018957 -0.0038637566567800248 -0.024413112869657715 0.10253168063346693 -0.072699343587880078 0.065792203821677497 0.047281165546884212 -0.023968087838998346 0.048299762644673096 -0.011083473014998171 -0.013089683639271795 0.085805724226894406 -0.070611390879326455 -0.01099712989895619 -0.1002534981936926 -0.0052884661088751636 0.004416972668000829 -0.081850869265057635 -0.062722242667571648 -0.052878748604247315 0.024443788414805007 0.011508516549609339;0.020124177180928186 0.10024329749783943 -0.07413221507730608 0.18378670698029706 -0.025691144332799513 0.051322865406373507 0.14876768048678593 0.11061406974695757 -0.041720076455828994 0.086516070777878887 0.050668015339287914 -0.14773478192693557 -0.03022790897052691 -0.17859937599854195 0.044754408598115622 0.13153172301503341 0.01987439303595169 0.0080827941782642236 0.067575619633692505 -0.16707982863489057 0.15171111341479485 -0.17266983068389469 0.060271616487809238 0.32691820162631102 -0.17323579479040963 0.069434423718989974 -0.057369607992317856 0.0039114880492286371 -0.095242835752379074 -0.02918121837505731 0.17036721138249564 0.17537045076524194 -0.086228266256105579 -0.063382118174774627 -0.1029664702489269 -0.16891416358124978 -0.0092551614586197616 -0.13383332786878407 0.082734633496200638 0.18132550827326241 -0.16045066731274127 -0.15686820998534104 -8.8459191389048843e-05 0.14717771931096879 -0.16035252312705014 -0.13576319332876374 -0.23541685933251816 -0.1958074396766476 -0.17713196580162591 0.094141434275195099;0.075163274578922273 -0.084310366869397621 0.011262187629178964 0.041379066719553222 0.020733887222574566 -0.042094684683256833 -0.05620993136755352 -0.044181878039548352 0.01768034238832283 0.031735622019484204 0.037707869554314911 0.099684295603426995 0.036901398017814266 0.17236296081624353 -0.26383940498022329 -0.043106707407769659 -0.0070965400008090171 -0.0084162531057283274 -0.0645945271202613 0.21179992553734608 0.05862189770362617 0.0028904657884066781 0.15893124875781148 -0.38560731729886716 0.11597353520865095 -0.14837524918242398 -0.063350743861803893 0.049431863718272004 0.1378796922531341 -0.15626075959203264 -0.01956533503982387 -0.15087208936141677 -0.122519786565688 0.039051055442404385 0.08258551233644891 -0.012949030750029483 -0.031984731387066326 0.037030431545624395 0.0032543992495801437 -0.065032241777141425 0.0047003610677849497 -0.058088624534081194 0.069622705870878238 -0.03107049476101895 0.097032068839050925 0.088891385866004119 0.044664611328040553 0.064335207132230149 0.114936202903583 0.0041408702302861873;0.057133932474910464 0.069048825155511709 0.085529717076590031 -0.14277737423016876 -0.0013372102888999122 0.16241043488724047 0.040051414593309055 0.0088939012447725035 0.057949410297145496 -0.061479826626749501 -0.049152014795860288 0.10688242977690043 -0.023200504941263397 0.027711905286418075 -0.011637385460170306 0.026523654132542571 0.098421310132017908 0.011633799703344499 -0.054573503338119653 -0.069586491497448721 -0.0036924198361161249 0.056987554176767222 0.035857639513841619 -0.028407392009477499 0.049775053264781266 0.0019229844562065393 0.0064468702788664988 0.034247770437955884 0.074675282958552261 0.010444738120710234 -0.059054115554041511 0.069570373390162615 0.013190995272429165 -0.019094950483353867 -0.038460183779550502 -0.066329767302527584 0.087177371556732122 0.01720232172184797 -0.1082600292708757 0.09948349148743614 -0.055160478742800896 -0.055666865137721518 0.006048242515065823 -0.0088988471405202062 0.021674086227077838 0.075677262901650416 -0.052590876300822313 0.13082434243895297 0.092247397826592178 -0.0079145330977169054;0.0011265988883401655 -0.0028523808177007485 -0.0099796565843218114 -0.0085792309765826934 -0.014192843893862663 0.041441362045340227 -0.027584128165559815 -0.00096429524299175258 0.0037757871701137214 -0.022530932778440618 -0.013121641265211726 0.043402648894758901 -0.023107972005800427 0.024137505377499049 -0.0039601650274434007 -0.0083037437169812423 -0.021246280804843868 -0.014938614697175504 -0.03184814830242421 -0.035761568605368541 -0.046484798664098576 0.058031401673668326 -0.039268720000864357 -0.0083531750332250243 0.025691183882701092 0.0086275126182061186 -0.026603392505440585 0.019422783849858183 -0.030917492091157201 0.011833500740411434 0.010294080786769895 -0.0069524458007320317 0.034523268861817329 0.022567277907931328 -0.030279830094087079 0.037120143943128223 0.0063150221942892548 0.046260438949028503 -0.015547222483487753 -0.0053162931167067135 0.018274855377065406 0.0076209064162652725 0.020625265264350517 -0.014783609678612806 0.0091437636943851874 0.039807447770027163 0.059318805648941278 0.045446915786724704 -0.017554515240463302 -0.044761928996576564;-0.16824225322301128 0.18011424345156982 -0.09773397069188175 0.055724337805757022 0.015204137036962969 0.12292904133383924 -0.045859387411586607 0.095381892219176617 0.054805222367402373 0.058787379930362961 0.072867720844880662 -0.089426505323426164 0.071737927855464553 -0.11787287447668668 -0.11635559204356499 0.16075909232551858 0.011745108403442331 0.16900135099207103 -0.047265928005008027 2.691948530797228e-05 -0.02085949871719435 0.14122885653803069 0.0030823235252919181 -0.21494355737683032 -0.071537177878426325 -0.071339065944886426 -0.057591378601191796 0.24741323895635864 -0.1200115735672754 0.0047222803297687181 0.10566825474045025 -0.015126296653656338 0.017157082199876193 0.12413924278744146 -0.0040384111104241225 0.13056101552374186 -0.2079543991989159 0.034967782747381125 0.13329659982198663 -0.15275594031711434 0.15044368764810526 0.073298764814377165 -0.012069783677303327 -0.077141023907472739 -0.11501535131155977 0.26755525267157049 0.16949799782346939 0.14451737224877148 -0.074385621167296564 -0.11209816224597929;0.2147635111603737 0.096600898865097415 0.085300134623477505 0.055405060242018821 -0.16634927202938274 0.10498556787990389 0.070140158298062666 0.078028022030036809 0.033083204200391972 0.048841176680157861 0.035091513190282232 0.079065444544420507 -0.13823657223824512 0.14673681117783283 -0.12403338377206506 0.085614663678822256 0.22169666476845265 -0.1818801732164961 0.031256955054270272 -0.0713037762313634 -0.027699023889811932 0.17594910215632553 0.10191150229298916 0.074405301365061849 0.11381707984100611 0.016460423705908504 -0.16943049921123221 0.10907547649188674 0.013132067433467693 -0.069498894551482185 0.13476450210709079 0.11870396504637293 0.13466938262972658 0.034462490977060146 -0.030178318013792185 -0.09391859966196707 0.060128606389035097 -0.024479864217620606 -0.13575451955227943 0.22866512292081528 -0.13799947065534282 -0.24618934674900517 0.053334825425419875 0.17246105053098704 -0.12786171964562384 0.1412803211214583 -0.023092376375735354 0.10440478060639281 -0.10058266751431634 0.066022230516166444;-0.0048881603773198107 0.036989045627257813 -0.015265015437073284 0.026095353868442348 -0.027402184901143087 0.0013526117136948804 -0.0033558657572796088 0.034235659125489974 -0.0033417517610129645 0.054307895193287506 0.026212437077101299 -0.051845552356383037 0.0033049813497836927 -0.010913220175152222 -0.046085018333157188 0.069834768243178677 0.07370659517422827 0.0023701854743991002 0.038061007039558448 0.030428063173078081 0.036525751124362245 0.0056089364268623 0.045300845127782291 -0.023285111603775593 -0.020718450940602075 -0.044200990862954447 -0.026952601617751391 0.036124245726022956 0.017699592567969762 -0.050121019077168219 0.052067482478742294 0.015079022544434639 -0.023361261696384066 0.013505997171912676 0.0066310597938569731 -0.026566895065369404 -0.033908753833305064 -0.0034909895126354834 0.0042772326906489345 0.0046443314675951248 0.014221979096883587 -0.047701619579066004 0.0047046969495031666 0.0246150528885834 -0.054032290579772366 0.016050974119851024 -0.024273768383329362 0.0094723036196201187 -0.003719511953802746 0.030191596535760767;-0.0092584146301759648 0.052934383908986721 -0.015440749218241536 -0.045361460831224582 -0.017734092486315207 0.050646408080033532 -0.023159934062777932 0.0016520046927304001 0.034982720744988094 -0.0030589678855774799 -0.043387393441352666 0.024212635186088984 0.0088979311333969094 0.025942417501558897 -0.044277407845758267 0.041329455860175487 0.027522788818947125 0.041046819511291237 0.0086858595959613764 -0.0137806460496172 -0.031364731831862995 0.048072756373706761 -0.00099067953524741774 -0.033592397242986786 -0.0041755955401155632 -0.020135286167885156 -0.071611439022235407 0.032600536123421557 -0.0033938777364497983 -0.032393837560305234 -0.017125509969622279 0.020538869561757656 -0.00056028407002394853 0.034296069968978424 -0.03327786351028935 0.01762966882177763 -0.024070949358576513 0.089986162176583714 -0.050872836038744498 0.013919746577467978 0.036676091434053759 -0.027277058251193462 0.0060708772529441809 -0.012027787713175782 0.0013592728014285231 0.048643653172625638 0.048267202064613435 0.093546669111053832 0.0067514993507945473 -0.012321285869276766;0.0048941144027285621 -0.037010055452938243 0.015321859449037091 -0.026130573397216073 0.027408355767448593 -0.0014052731090375521 0.003374110425552346 -0.034235183272620921 0.00337760905380402 -0.054328258136661173 -0.026213354571486821 0.051839565507497375 -0.0032972174389465638 0.010933131812766646 0.046106905803606331 -0.069863598281891662 -0.07371394743435801 -0.0023580623769656078 -0.038066587741740349 -0.03040328148496178 -0.036537210574299331 -0.0056263450555090397 -0.045290149306480502 0.023278684262341153 0.020732692625485855 0.044233744359195783 0.026961510268128788 -0.036174740720706942 -0.017676900738165194 0.050141874287861828 -0.052149631733320996 -0.015094182437329028 0.023348776380426563 -0.013550705429589331 -0.0065921109755771607 0.026534987208234082 0.033924757166013862 0.0034558332728250388 -0.0042860240226819998 -0.0046546850962249746 -0.014224741783476172 0.047728220155012456 -0.0047340326778603104 -0.024651180228475979 0.054087142436869934 -0.016077108314558764 0.024250105678033908 -0.0094762334688497877 0.0037535532835773545 -0.030154627615521908;0.0053252724543635327 -0.021847213808808014 -0.011999921772446178 0.058052125178436172 0.010958496986977111 -0.013363992364268832 0.0031161131082495705 0.021080411926292262 -0.043805765270999462 0.014583979326417541 0.03191233595522474 -0.071321394274864072 -0.0070587594647216409 -0.068314322616683673 0.0068732274745335036 0.010769976004979229 -0.05372975758292594 0.034738463136423439 -0.0017441922672350684 -0.015155844555471112 0.015355691815382213 -0.025348947181569485 -0.0067856021829284753 -0.0029354537436732252 -0.01945167243315991 -0.015476396559502456 0.057010077426696913 0.031651590201106028 -0.037487100865833636 0.017030063449335338 0.04173141973176149 -0.0072688281843429703 -0.013889382191193978 -0.016046353120560023 0.034619568674797443 0.020883111433972073 -0.018652753274022271 -0.069612805328565633 0.082611952308463771 -0.049303099231342698 0.012859972364656412 0.028590124367141964 -0.0094449203186121253 0.0010924224156340944 -0.039429579826852579 -0.037313938653651527 0.0042454381778689373 -0.070761608173094404 -0.017202528939951667 -0.030560814205838522;-0.17512460411249273 0.10760465508956041 -0.083882939693255651 -0.10744764043148758 0.088377608995739043 0.032099226413963268 -0.095159751958330818 -0.02745967658106193 0.074297391797520915 0.12264533346853701 -0.049868201466183142 -0.014299817087347158 0.19235206353712733 0.062452222851422379 -0.14726678712665583 0.08880236448234248 0.12738519439698656 0.18505322294257789 0.061086672437236908 0.22120437350974867 0.11796878166417048 -0.079115940131541357 0.11393702943253176 -0.27933466880939656 -0.091845588134588485 -0.22571030952192989 -0.048751846605432428 -0.061215389122409744 0.16125193305922969 -0.16039347031700346 -0.12563066680710269 -0.06234044042296881 -0.17744748055527954 0.043484660785855972 0.012420206104978184 -0.082310332642750936 -0.12604234292076807 0.12135996071261486 -0.078034414802194418 -0.0072198803292259596 0.10290491010194359 -0.026026092978669532 0.0098209964995267813 -0.12970849623646424 0.10309602013952633 0.056972891937726415 -0.06501112641494286 0.093672203031865436 0.20718174183358068 0.03955433284920816;0.00086192212313367924 -0.0069188573016540815 -0.026837903992001661 -0.0041718861049993327 0.031015149173422438 0.032943350243973282 -0.014234729424800311 -0.012055254312923664 -0.010700801076365837 -0.041266969661020364 -0.0269994975798406 0.011790339423801911 0.00033617065655996205 -0.034227468857791828 0.011946169395321588 -0.02074438590460263 -0.093819373965992658 0.047094122345439721 -0.038094737844289919 -0.057267925564467193 -0.041029485358028014 0.017429556355136072 -0.048228918420326609 -0.011961422438326123 0.0032843667222666804 0.010646892809311879 0.013716438171516106 0.034168890298607368 -0.058336039561090146 0.036861577803398132 -0.0072848156858929571 -0.010759320080460235 0.021147722396172776 0.012488819317360138 -0.014405084130913952 0.067732211817867732 -0.0011792661659599942 0.025904319682908419 0.027064890587301181 -0.035633935437083868 0.029544794338623132 0.043961026370312718 0.0036396498658395034 -0.029012770348096201 0.0093190588259512968 0.0040341897006947094 0.071266250711122539 0.0045320828071224841 -0.015779735328269852 -0.07670195922038385;-0.00078899985468714004 0.0068003104854471577 0.027001130970480135 0.0041493721055679503 -0.031083080743565916 -0.033157302285176923 0.014314152985872687 0.011954245769648689 0.010828118930173483 0.041222605425753116 0.026967294613821857 -0.011980092205182655 -0.00030467806630314148 0.034195867550278841 -0.012089522171783076 0.020754183223456346 0.093836247472080678 -0.046925923132814497 0.038273630063480092 0.057344252221511412 0.041018663763504638 -0.017500773480672568 0.048245893458027427 0.011812892485687601 -0.0033633579009597825 -0.010616665283440246 -0.013684149962026831 -0.034235566285480398 0.058470843385542093 -0.0368336171264525 0.007002882035982671 0.010820214481998216 -0.021255958891410288 -0.01262468125584534 0.014530710609880912 -0.067892735019879538 0.0011758272809636058 -0.02594710020297562 -0.027001320849336791 0.035610053203727773 -0.029465283574924856 -0.043977877211213171 -0.0037228987496349926 0.028971203553410971 -0.0092954262050136318 -0.004111490712251243 -0.071309975335577022 -0.0044714295223859009 0.015828521326070915 0.07678845061454051;-0.11201747098742966 0.089638322359970476 -0.12752713719736911 -0.16701810316649679 -0.012905892370584043 -0.00067813301020550217 -0.14155707221296873 -0.066189812876657594 0.0083526071204950442 0.030238126662291257 -0.14440682302829527 0.0094837365917207778 0.058485532648563328 -0.050631421105428114 0.018190219985777613 -0.041156074258088329 0.034325094448886782 0.080175063980057235 0.025255600605886528 0.079856686741133234 -0.01906427938008487 -0.036235550917980461 -0.064320635835916795 -0.1303261330941819 -0.024649248189836184 -0.12349976210836076 0.1234236704936913 -0.16054276541136475 0.14938170114813579 -0.0041976985699882759 -0.18385677821246299 -0.026284646202928627 -0.084468816205259686 0.067368969455371075 0.050514872955703075 0.12510234214552998 -0.074691349241569685 0.11568140041087147 -0.040270825150676863 -0.1029306701650792 0.05978389266033142 0.16479260521162489 -0.010141547026383625 -0.20038165221389684 -0.0092000979247552593 -0.0097248535387601375 0.027411540397432866 -0.0263825408835771 0.17376419175434205 -0.024119630703095907;0.021290235707430844 0.043497632753234282 0.071792930965984297 0.049504731717372061 -0.11775954360743167 -0.042182437091147516 0.039977130242575334 0.02143326078904086 -0.10758912018583919 -0.015369764463262122 0.046484898156679763 0.027763842530345438 -0.12254773744241418 0.079900830317646776 -0.14743679286779091 -0.05416362399463142 -0.021706194859846636 -0.029983953375222902 0.064096113292128665 -0.010464671320911601 -0.033150487917415351 0.097950083631915499 0.016631434760085752 -0.06540952808671803 0.092968786939614675 -0.015852325642353046 0.11715633360562201 0.081149757893463265 -0.039879329848175181 0.056951280512174268 0.020141044590999583 0.037331404389283736 0.051800170726739259 0.090202505907189798 0.16046896058272361 0.12976079647853297 0.014342400220477874 -0.050061003105983409 0.024724869489372234 -0.13635329454392292 0.067660996994364023 0.03445973822849948 -0.044962438787826881 0.031580235526684833 -0.15351477339612513 0.029275709964120447 0.036744849117895009 0.10415092120282948 0.14124809023156804 0.041418166042918154;0.010986004699364319 0.13600857052262053 -0.077353903880863772 -0.0072111925899437206 0.0024661991329270566 0.089633060374550266 0.061870096102673952 -0.022665634374140455 0.0032173944632710718 0.076784766194825604 -0.063829595766795033 0.012020804604493115 -0.011132924565640042 0.012070036745967261 -0.0097341395922549267 -0.0034678038637484389 0.091433943009055982 0.097619731165099921 0.092009886571159827 -0.12727228710967001 0.0074491518396206033 0.032236982838869763 0.00060800287196432828 0.087454622789294251 -0.078176398843971123 -0.056844354698249722 -0.052145956914376498 0.017153865781546578 -0.065057838281728106 -0.083155625074753131 0.031339351003746969 0.10469958886284733 0.0042037053082656563 0.094627008805547766 -0.047619134502401003 -0.031602053367943868 -0.02706048300716719 0.038801301705458112 -0.11572423328000843 0.17003008608019976 -0.067225414540112896 -0.13564543209574598 -0.0035278540377223599 0.031905657153975552 -0.11909809809185955 0.012785646412997688 -0.040606365876153225 -0.015769381120798554 -0.10340338758003778 0.056475329949030255;0.12032756507786065 -0.08341077249262964 0.078578137670928444 -0.079886858265391894 -0.0083278027262982546 -0.08618371814044852 -0.0066747701442695737 -0.11055704612767921 -0.0042074560899712831 -0.07252184040929463 -0.07665602879587316 0.057037088354681999 -0.061026068811684868 0.1026065465985152 0.02560378091905351 -0.06228907205107833 0.050273785656060832 -0.010465632798206562 0.008746842458737164 0.062563600006291631 -0.11325729945039793 0.066890928296748045 -0.017308962213787533 0.03633642788204397 0.085541993754042617 0.011345769774975992 -0.001581909875539882 -0.11169544211022557 0.08399960533834859 -0.0003481467081126419 -0.066680636520834016 -0.030929232645430054 0.098509155640660456 0.036865749100919554 -0.0079189917359851619 -0.036815027431856405 0.041784176999894243 0.0047541111280467252 -0.16510803526775414 0.019716170085838144 0.051694805589193385 0.0090255677090822373 -0.016037726310669291 -0.033110991764849509 0.064992299361375044 -0.010073483398884923 -0.0069903345612386336 -0.034478322876933108 0.017681680038430792 -0.045021563761273892;0.0055897856500785863 -0.021832370186015242 -0.011881265608946185 0.058028424336513 0.011030399966493505 -0.013121212460852067 0.0033544775460553696 0.020995158638525541 -0.04386565874043364 0.014555601914477023 0.031669575566383626 -0.07147420354450762 -0.0071478211939084929 -0.068717421438843754 0.0065165746589052678 0.010911308687493024 -0.054170456381427451 0.035253845555554171 -0.0016673270894523127 -0.015526855760303221 0.015206113931879699 -0.025525834812386464 -0.0067801646378631408 -0.0029725806090142885 -0.019626252415124203 -0.015634882169667685 0.057163227117140031 0.032027167775995083 -0.037579369769505197 0.017034422907978176 0.041420909255943904 -0.0069422921391504248 -0.014080834091676984 -0.016097310277428993 0.034812738663503998 0.020818757340636197 -0.018531022427452595 -0.069762979950441908 0.082691165009379536 -0.049307170714213602 0.012927503197367409 0.02855291414784383 -0.0096654007466252297 0.00092454166534760998 -0.039569945718363947 -0.037525604889152256 0.0043058450881206757 -0.070877878503246117 -0.01724912481724197 -0.030905404066319066;0.0011458389202980569 -0.0028656943599679771 -0.0099453410331640756 -0.0085863133787027549 -0.014216228869571841 0.041427729239681091 -0.027575895088897254 -0.00096527941673797159 0.0037859930967775804 -0.022527666639670783 -0.013113323673716207 0.043433175605771646 -0.023129761168079195 0.024183531681708902 -0.0039596614480994496 -0.0083092119381488957 -0.021203357382575425 -0.014996192770370724 -0.031839568321057436 -0.035738173716710141 -0.046488771794902843 0.058040795122793996 -0.039255302932442927 -0.0083374306645001579 0.025710102438618199 0.0086377884765590444 -0.026616202625761365 0.019394317233184893 -0.030878236929786081 0.011830055935298619 0.010289575706211824 -0.0069457706221263838 0.034535096022796037 0.022564585531125558 -0.030274223953048209 0.037084713978077173 0.0063435830552518325 0.046257965739059083 -0.015587382038122483 -0.0052884559475344451 0.018243423812153419 0.0076035206745463605 0.020634321353479056 -0.014767683119925563 0.0091505951631929896 0.039819834255567961 0.0592943527617752 0.045456691282515269 -0.017556688322439371 -0.044728017471626753;-0.06563151854166327 0.043041162225311569 -0.04468194351386786 -0.10266499043360607 0.11869949198462276 0.11481600615367291 0.052815864975699123 0.041773729452439526 0.065090465012634394 -0.056284058120983027 -0.079864550425781861 0.012865209299388438 0.080290073489811792 -0.079719673528660814 -0.0013740660873842018 0.026914705234693848 -0.086312791700136809 0.1036577552418354 -0.043059649477378108 0.00018583028440360299 -0.017934993950186651 0.079935560209983228 0.079681746518611221 -0.07547067613899322 -0.071170428136293901 0.03824820957415058 -0.030911076240488708 0.037963856584737526 -0.10743538438998461 0.0035834204306222656 -0.026692070668540263 -0.035903914737313455 -0.008011381834747134 -0.021003434436682251 -0.052995444665959172 0.051912734478166196 -0.029666865308561621 0.025413187866887448 -0.0088798377572245242 -0.016299174397853534 0.049669129452758712 0.041104104811176302 0.021540760930414498 -0.039606768389073982 0.06405780675907341 0.074167628774088182 0.06242362125656313 0.13180608872235813 -0.063851016327772417 -0.023091409791333846;0.0053417693340861725 -0.021845908714615423 -0.011992720246875801 0.058050603511475299 0.010963098029413096 -0.013348461454557136 0.0031310428447863391 0.021075168590625401 -0.043809594757964261 0.014582251751304908 0.031897039756598716 -0.071330839289238501 -0.0070642047623437534 -0.068339718176271075 0.0068508606710374863 0.010778966403208207 -0.053757297892199768 0.034770930917658427 -0.0017394752744114147 -0.015179265440624987 0.015346461819410311 -0.025360142880595699 -0.0067852760681543422 -0.0029376737200208537 -0.019462582672695149 -0.015486418919581912 0.057019598210510496 0.031675384135249278 -0.037493042934568226 0.017030178957288675 0.041712167302077226 -0.0072482310208920901 -0.013901456759433588 -0.016049439594876459 0.034631616909814332 0.020879224004112625 -0.018645209499286199 -0.069622135455552042 0.082616915263373281 -0.049303221283815361 0.012864166187379455 0.028587724922140786 -0.0094588296190653079 0.0010820121515024198 -0.039438477127566651 -0.037327245766408189 0.0042492732661135709 -0.070768960798522643 -0.017205346044397267 -0.030582416728666951;0.015756538384804484 -0.0083176781819063964 -0.014002015751352678 -0.02976814569004536 0.012254360837901535 -0.14021696106673512 0.034572304538520511 -0.083125952537193959 0.022117262117895695 -0.039988614324473842 -0.024242566301881728 -0.054355557860883842 0.062537743097374018 0.0056520939245733506 0.0058813804824161759 -0.077563432921479103 0.0027473790479640311 0.095743807878421558 0.090018643556717473 -0.0005000782712260472 0.095684411998592636 -0.12717341851261774 -0.0030746572386512201 0.0066213798170711609 -0.11646835196762657 0.018332648675025459 0.067452320252604128 -0.14664208690621408 0.094245398435186076 0.011928184977356458 -0.14034928451233661 0.048229770647575949 -0.10575777138368013 -0.034656919245127524 0.068413745575920643 -0.030330095141129481 0.02003374539122699 0.1045608064022738 0.060540764672202756 0.026470104624155888 -0.069997882815275678 -0.070674069089235236 0.075657453376720044 -0.055621684343466531 0.045039306541161624 -0.11349068313838932 -0.086893968633721036 -0.023642429542262748 0.0539302799763259 0.11997307855149579;0.059472974428410832 0.16989407930316366 -0.062200845681651122 -0.15070614427273671 0.091298023482197788 0.18968182996896413 0.130639711414337 -0.042213869082102125 0.1542375701127916 -0.10215489353066631 -0.16019524164540189 0.10408354276468099 0.033678118256872412 -0.16496770514454531 0.17301396051272444 -0.047081499360629123 -0.048773813816385292 0.14513179365347306 0.030689548327975047 -0.21607522999804862 -0.069522306845076737 0.030545026906472369 -0.13797295176391572 0.23823942427725983 -0.14519133141790794 0.16265653795328908 -0.030304753848615786 -0.034245168450126096 -0.12321055516078563 0.05515764460947635 -0.03589531257558732 0.17859351888913125 0.081183249642063762 0.098131955854341035 -0.26178711623194256 0.062228971310355499 0.0060650960380411586 0.116226289129873 -0.093448945626390056 0.21825156099154761 -0.094746960808980721 0.018314005938365872 -0.03290814030487578 -0.092936112950153041 -0.053375963806847518 0.080141799121843313 0.045017966706495556 0.066507241211006096 -0.26646064485349386 -0.062968215624518362];
  
  % Layer 2
  b2 = [-0.24372899355157659;-0.28588129894182918;-0.24409051801539122;-0.26974209776006453;-0.14937175641685543];
  LW2_1 = [-0.018285830913765077 0.10848896562611218 -0.10910233763004495 -0.10918411576494133 0.58020868553729221 -0.10845276731065433 0.18892657509467284 0.082409735362908271 -0.13619165305109618 0.10315147391512552 -0.068480500417177112 0.70160612264971878 0.073931782714626651 -0.10899230579928505 -0.11929502919996061 0.10919023954478294 -0.1057043382729899 -0.10106350993214025 -0.12247527437685828 0.12284822435520501 -0.057595169128292288 -0.17923733009459641 -0.088401973735017653 0.45144685563077935 -0.10615400892240083 -0.06835359347347833 -0.33709104981880111 -0.10573314997636517 0.36309982146405845 0.00056899581081895916;-0.19439183822279005 0.12382215120671274 -0.1240603511925733 -0.12409221194628631 -0.05093437962786676 -0.1238081398623964 -0.217921646533355 0.76999870570861073 0.40804205020956807 0.037741724550678805 0.16078557413689498 0.09469931043319553 -0.08658225913891171 -0.1240175186444351 0.13354588403493065 0.12409459864731845 -0.11856976569467823 0.14299191058615246 0.11926031343090994 -0.11907845412853521 0.38628365866513648 0.26928235970836778 -0.31477361187350178 0.39321271916296635 -0.11876355475236645 0.16080121655311116 0.090077721131739494 -0.11858254997583959 -0.11843560134231271 -0.10324423005058615;0.31746692172002278 -0.12989951153403217 0.12974036516212789 0.1297192790989484 -0.058858948608179959 0.12990894951592477 0.073071240074991342 -0.047307337638228329 0.55303588382156221 0.080325766414382063 -0.066625414947463435 0.12642874973771132 -0.087511891975362424 0.12976879089016857 0.14652080083605543 -0.12971770157184501 -0.10799472365037815 -0.72004924844104945 -0.11769404587158583 0.1182085161498987 0.48163151144807487 -0.14055081326701727 0.14155957244487946 0.061739426619678857 -0.1079827375781071 -0.066612111620042574 0.15547717229757163 -0.10799386418011529 0.31750671023079557 0.025110826845747919;0.26847993580008861 0.11122465764230362 -0.11158750604259342 -0.11163627024388267 -0.0051389506042934041 -0.11120341539550894 0.15506490120602634 -0.098341906686366942 -0.15612645589854854 -0.42723910922334896 -0.046946737797152603 0.0026246245722546554 0.7534552429821364 -0.11152203112413288 -0.097149333150328712 0.11163992526796071 0.15966844179722259 0.063795034417044025 0.13594142304202214 -0.13551008058673047 0.5539806357090874 -0.057974503552657708 -0.30093820321005849 -0.02338331181402007 0.1605210329847486 -0.047059128225960978 0.1574418670037796 0.15972157894503405 0.3179149765004558 0.0048955731729912301;0.28935753075316001 -0.092107242018991425 0.091905276326337812 0.091878456518502211 0.43372351280260185 0.092119201125390168 -0.22349111915889983 -0.14638874838378799 0.53989445770250788 -0.24493022739727258 -0.084085140368453645 -0.081329416117576506 0.037907262144480189 0.091941404779228159 -0.11676143164156372 -0.091876449294660392 0.09020967217115046 0.071105867737655884 -0.11357978593790596 0.11391314649729854 -0.092874136898135951 0.29604213590581852 -0.3730633221066339 0.04434433357713418 0.089685655826647906 -0.084048814110102427 -0.18477540793001718 0.090176232686168228 0.016882825367483961 0.74881920537393776];
  
  % Output 1
  y1_step1_ymin = -1;
  y1_step1_gain = [0.00678530987942798;0.000415291716024079;0.007031783386315;0.0108721876067684;0.00152151149544613];
  y1_step1_xoffset = [0.0055915;0.0081273;0.0071317;0.0043811;0.017654];
  
  % ===== SIMULATION ========
  
  % Dimensions
  Q = size(x1,2); % samples
  
  % Input 1
  xp1 = mapminmax_apply(x1,x1_step1_gain,x1_step1_xoffset,x1_step1_ymin);
  
  % Layer 1
  a1 = tansig_apply(repmat(b1,1,Q) + IW1_1*xp1);
  
  % Layer 2
  a2 = repmat(b2,1,Q) + LW2_1*a1;
  
  % Output 1
  y1 = mapminmax_reverse(a2,y1_step1_gain,y1_step1_xoffset,y1_step1_ymin);
end

% ===== MODULE FUNCTIONS ========

% Map Minimum and Maximum Input Processing Function
function y = mapminmax_apply(x,settings_gain,settings_xoffset,settings_ymin)
  y = bsxfun(@minus,x,settings_xoffset);
  y = bsxfun(@times,y,settings_gain);
  y = bsxfun(@plus,y,settings_ymin);
end

% Sigmoid Symmetric Transfer Function
function a = tansig_apply(n)
  a = 2 ./ (1 + exp(-2*n)) - 1;
end

% Map Minimum and Maximum Output Reverse-Processing Function
function x = mapminmax_reverse(y,settings_gain,settings_xoffset,settings_ymin)
  x = bsxfun(@minus,y,settings_ymin);
  x = bsxfun(@rdivide,x,settings_gain);
  x = bsxfun(@plus,x,settings_xoffset);
end
