% This function is generated after the network was being trained 

function [y1] = myNeuralNetworkFunction(x1)
%MYNEURALNETWORKFUNCTION neural network simulation function.
%
% Generated by Neural Network Toolbox function genFunction, 11-Jan-2018 22:49:09.
% 
% [y1] = myNeuralNetworkFunction(x1) takes these arguments:
%   x = 50xQ matrix, input #1
% and returns:
%   y = 5xQ matrix, output #1
% where Q is the number of samples.

%#ok<*RPMT0>

  % ===== NEURAL NETWORK CONSTANTS =====
  
  % Input 1
  x1_step1_xoffset = [0;0;0;0;0;0;1;1;3;0;3;0;0;0;2;1;0;0;2;1;0;0;1;1;1;1;1;0;1;0;0;1;0;0;0;1;0;0;1;0;0;0;0;0;2;0;2;0;0;0];
  x1_step1_gain = [0.002;0.002;0.00200601805416249;0.002;0.002;0.002;0.002002002002002;0.002002002002002;0.00201409869083585;0.00200400801603206;0.00200601805416249;0.002;0.002;0.002;0.00200400801603206;0.002002002002002;0.002;0.002002002002002;0.00200601805416249;0.00200400801603206;0.002002002002002;0.002;0.002002002002002;0.002002002002002;0.00200400801603206;0.002002002002002;0.002002002002002;0.002;0.002002002002002;0.002;0.002;0.002002002002002;0.002;0.002;0.002;0.00200400801603206;0.002;0.002;0.002002002002002;0.002;0.002;0.002;0.00200601805416249;0.002;0.00200400801603206;0.002;0.00200400801603206;0.002002002002002;0.00200400801603206;0.002];
  x1_step1_ymin = -1;
  
  % Layer 1
  b1 = [0.0053026904365616389;-0.057449774066403989;0.016716482413662477;-0.0074772888500658176;5.1826770349428912;0.010249638392658883;0.010289597019669357;0.055341110202023355;3.2458866626482106;0.033527926377171835;2.9268377581099774;-0.021217442036077474;0.013519034309251242;-6.6513500265685046;-5.0104193940896975;5.5024972827446144;-0.14255266989400811;-5.4309455129963533;-4.6672827256185867;6.0904206726295049];
  IW1_1 = [-0.00047208823173843612 -0.0081668261563742628 0.076156908120132275 0.047736351831563266 -0.038652998195496648 -0.084178692730981122 -0.058754096119190906 -0.010110731168313672 0.073626492227862259 0.025226064854186738 0.02038512332106264 -0.0075348256879228482 0.10556625571127748 0.024932759510190569 0.03774141995364301 -0.066563355009129924 0.0047233916971605823 -0.082175852344676642 -0.057135720137125909 0.034228310492919682 -0.018482345623982665 -0.12535147007586245 -0.075027774106302625 0.013039601492763722 -0.029630791224448345 -0.082793459182236545 0.061578684370156921 0.023805464050484042 0.041747216934476757 -0.055835391641621823 -0.0042192261876335922 -0.049722553831441509 0.08098717705087484 0.077335714102576419 -0.0075370800932747974 0.036867215941935295 0.040950396556564406 -0.0089137416238475198 0.097590484157094287 -0.053601745829426575 0.014829624453671208 0.078431143362377928 0.08788353694491223 0.002993565882101556 0.051138598597531719 0.049864448132070402 -0.043978224099400255 -0.099220459591741708 -0.08086170358295397 -0.016005483092995671;0.0035860741312981172 0.0018301471565296066 -0.019539067160255583 0.028383590519754576 -0.033144138506993742 -0.0033423427723754465 0.014598632871723267 -0.025584507112602805 -0.085571730064245927 0.0047730953176433732 -0.018562989514035001 -0.024214604341046272 -0.0046826121103966589 -0.0030182582725699993 0.0064214917507763609 -0.011771592288439527 -0.048966783899236963 0.0094611247129493224 -0.051137720064008484 -0.035606913413941302 0.020655575426363881 0.023006750770534764 0.029704990726445508 -0.028427250629584226 0.013538145120524588 -0.0029362023658653018 -0.012673639659626179 0.032269710906847784 8.5573130840786775e-05 0.029552447677460795 0.041740657848602279 0.0096644809037765844 -0.031220576421641513 -0.0056220260175507356 -0.042415665907893918 0.041075642530217109 -0.050547171192900857 -0.020532665874972867 -0.00086376337195996947 0.017868953237479755 -0.016593065614922926 0.037374570627286045 -0.016914179109638976 0.0094219252133525225 0.018630313372352481 0.044371604868057975 -0.005025502638147228 0.026290267257917291 0.011613285147063198 0.012496734488075289;0.013106551367281612 -0.077343343186765889 -0.038665855166427544 -0.03429613187398866 -0.027578841564258095 -0.053539883647268111 -0.069577477995394571 0.038792396033636829 0.012439560609512632 -0.058307235942766482 0.070889225485132448 0.061881381226805726 -0.071019083911143324 0.011577021247861096 -0.044070724057078819 -0.024076329833571712 0.012663220054235657 -0.029733292385834498 -0.034801737959037252 -0.044879115498853893 0.021998307396068284 -0.13099587126566892 -0.062008450759147862 0.10430184304633308 -0.071821713628468037 0.051350701598613477 0.038709039667755109 -0.0052632172412055327 0.0082772148442401116 0.10746758778781516 0.037699082057299695 -0.067830721251698631 0.051965262789313058 0.0785655107077778 -0.017417436524670996 -0.046733244545703392 0.079981767490709954 0.0036271679396478428 0.10277136624996652 0.038454433522896722 0.10438774998292473 0.053559794888074809 0.083543063009532292 -0.07578595761192089 0.10167626198210342 0.0026545793793189328 -0.083394337833193069 -0.092649538351907687 0.01412032110881487 0.0066093687516536213;-0.040962643009303697 -0.0036293087852871174 0.033559458655372583 0.0063920306125965221 -0.011579955547182273 0.091836052238508728 -0.067156880615231507 -0.057221148954650858 -0.023807458275983073 0.042232434747126027 -0.014040862205160161 0.079577006735043018 0.024264974419615143 0.0041803892538282818 -0.028883898478905733 -0.008882138067254854 0.028637858977093627 0.028522566787325256 0.089434569797165894 -0.020308857317051773 0.0012350382189912994 0.01391690308328329 -0.0223142875048929 0.0094036453967556912 -0.095645453516898571 0.014673424394809014 0.04740442447805112 -0.025528183918216037 0.011838179971334798 0.013042663345206828 0.018440816385142323 -0.070394323883175389 0.027275509803851846 -0.0381031530196504 -0.022722737547002145 -0.0017505794610186353 0.031384721305958492 -0.03500843203770676 -0.029640105167694244 -0.057844527121644104 -0.0091003684578731918 -0.096754096825320338 0.019220427513376392 -0.0055511955702470198 0.036103696970504043 -0.046466045258153336 -0.051785223371418117 -0.016039202912774806 0.012571852059917701 -0.053318608522984784;0.44791643067470094 0.60707808994788248 -0.1280695536584999 0.6320113491695114 0.45943314101464883 -0.17169703812780043 0.19875419534814107 0.36112015459441416 0.85084332912852012 0.25137972391354563 0.0026475137625622657 -0.014243860816938724 0.22359732809195904 0.30364767817246419 -0.44404521369920813 -0.23229144177703853 -0.057854769372252653 -0.24248153066876002 -0.9409154358369467 -0.53816305142802923 -0.18022378313287352 -0.17292888173741727 -0.20064887921505067 0.45354796201324293 -0.36245454125704102 0.39127942976822505 -0.5864704829861177 -0.54949248751629054 -0.093894900307219531 -0.019206269627843733 0.36261409589722859 0.55398680619617668 -0.16104261952729801 -0.47392734388714736 0.3333041941200735 -0.33276156121841377 -0.88645010423845527 0.36785310202654398 -0.40309223528010424 -0.1887524892727809 0.46071269839358314 0.061083254902314942 -0.016960262216159139 -0.26435683617583916 0.16850078192627205 0.37852506804338265 0.47194296845991263 -0.24815609856931345 -0.65354479909397523 0.10968001783755348;-0.0019182312159050285 0.028295567612008399 -0.059174758360593945 -0.0045203945034490685 0.0016979426655445102 -0.029636520047350436 -0.097541151504823051 -0.016391300164633284 -0.036460901462383316 -0.064178627584873735 0.055156236688960705 0.028365878230514223 0.036109008854581279 0.034399458980366948 0.036300319815054598 0.025443528334146179 0.015494146392033651 0.00084637153197898328 0.020710117949304427 0.051735152986330038 -0.031150729861467538 -0.0026536118024244482 -0.055768720387622872 -0.0036548234240943982 0.088978357817513662 -0.039653075330302781 -0.049107148886190388 -0.091359344722075048 -0.025046151645597019 -0.096241704769877603 0.042218803602743112 0.026371230243211943 -0.10653157540423074 -0.015630465182927707 -0.085990397596560797 -0.05623226911600758 0.030587075029524232 -0.1154765105838063 0.07553420740278971 0.041912618426601961 0.0035907225157800213 0.045638498182853662 -0.046993458772629296 -0.0070177438514356693 -0.024365398172491257 -0.026444027176243855 0.042920849828006778 -0.060647501717503098 -0.016352590851916697 -0.036767024710649306;0.01710284449184054 0.063009010762342249 -0.095941783143989628 0.093237807031420927 0.043567710276231068 0.0053198464101731615 0.0090265957289838508 -0.0091827238392090775 0.067220778221445149 0.023615213572211698 0.072442078776823113 -0.016406834729458898 0.0029489264432524935 0.14532509590981676 0.087078057771237144 -0.02274545763766455 0.065915966784254973 0.0031034826705796078 -0.060645114562501379 0.0061937277394961895 -0.044912744264210935 0.057079248723283904 0.020774119762878931 0.057259182915994779 0.059845209090587319 0.035999373306898459 0.0026967160477782749 -0.099634785036045184 -0.066306821415169373 -0.10162689863100208 -0.018780722204389678 0.053430637081774784 -0.08883362489277194 -0.034577235055499735 0.067694528723355921 -0.039119503920932809 0.035917079513373515 0.072173445336267697 0.019876568887169543 0.090268405973263174 -0.013849782224232065 -0.002878121907671526 -0.050209883090768515 0.071791085816225522 -0.041662007256601206 0.03826022495314859 0.097418242220762161 -0.11232563287616817 0.0046358545810084931 0.016606427044721778;-0.016327910055248106 0.029446730798771317 0.035940203917493002 -0.13017102997822083 -0.011046235762435835 -0.051687672485542201 -0.0029167071624452098 0.13233883162983173 0.047505845584847987 -0.085164366141631601 0.049811398847212876 -0.07064340787034952 -0.021684074140603873 -0.10250589356721784 -0.060264224971971571 0.040851172377169814 0.01643921759234929 -0.04844813260061711 0.049508328927341166 0.017864994330721362 -0.024764767139090958 -0.0089763858380664547 -0.022657046380747371 -0.013147030138487212 0.040659589845010842 -0.039185888073671717 -0.085756097517710739 0.045149217673899983 0.031568439455478353 0.0013564771668798129 0.002679160814407419 0.072005918930742124 -0.0038147101248694345 0.066868092937332035 -0.0075137992270814177 -0.015081883801756839 0.0055918718552105447 0.011772931073803762 0.082417734356499378 -0.070059392528283679 0.0157164013662172 0.015536276715693331 0.058251320460867048 -0.089761135992227792 -0.006562636148734766 -0.042791231369742777 -0.0092265363579009489 0.049394581535256055 0.0050265179785514615 0.045781874511930734;-0.60564956334805609 0.28249587920775499 0.10052887903043276 0.28802216437939004 -0.42189616459645801 -0.10497598983916384 0.24752475799756202 0.37598676125987951 0.24981606670446135 0.38172597163416278 -0.30042349510483768 -0.38144200980145565 0.10699544762527492 0.3836466576480646 0.25448855038856666 0.35418036746295922 -0.063747994373583264 -0.13540058732893784 -0.032570052878732422 -0.15010943792236608 -0.5653251391756936 0.082568010391195171 -0.087771852013050572 0.3923092526009726 -0.3258447075062455 -0.079819519876720146 0.090267498772549484 0.3486273823267052 -0.35684095240271568 -0.15637874217886397 -0.035302341225919048 -0.34715599941337788 -0.099853371918022057 -0.015585958863149903 0.16673331630678104 0.10379044129189494 -0.088261869158136372 -0.40705089595201482 0.088734087431411229 -0.17233212857129068 -0.5253359338320428 0.05251638342115969 -0.60664122744173599 -0.18277748053885329 0.28988529310458377 -0.018102866614841763 0.52716358941424235 0.015619746675813307 -0.2859805318061715 0.43929375271074711;0.057632400575690995 0.093209067849738328 0.068473372582585901 0.058743372535444663 0.016265119905561943 0.02602873662397337 -0.00089255808617768728 0.045555006558471819 0.053612619827738309 0.031689528000143283 0.019862873862141087 -0.032851715176787762 -0.029103214813031082 -0.038549161598622483 0.0011592344931924705 0.031817857493043229 -0.017365456021678206 -0.032205460268872589 0.03544288674328519 0.1142121344779243 0.03638485610722815 -0.064629893414664102 -0.003902748939206713 -0.098360914319061188 0.052857661003346601 -0.036199816750830949 0.024864705196666524 0.050343364398761581 0.0076798680229880466 -0.0011601887022617263 0.045296896430231888 -0.070625685025951762 0.087868704490852101 0.04770891484486988 -0.011502541095293214 0.070260246552255171 0.12227457519687671 0.050984938234348173 0.053959308577065698 -0.0059446840557462943 -0.00022988893357754178 0.061840470836858945 -0.019224060270803579 -0.02170919328943546 -0.012606403614172985 -0.12836169102171105 -0.032650740695518952 0.055749898797592012 -0.063447898824901774 0.034252592398822383;-0.76185953098394676 0.3336434672587647 0.10302071197527612 0.33754786570346529 -0.62262006706984596 -0.12894517023310845 0.30327885808028121 0.46206839628326862 0.27226442834766568 0.54446075050507459 -0.35413800987823313 -0.43642543696697705 0.18442013889238032 0.49831193688696945 0.30376748839659207 0.43714763779008153 -0.09234904029263126 -0.15760137903123439 -0.053159492141193657 -0.1720306984267404 -0.69835091006962702 0.098765431807464971 -0.08684693948673658 0.51736021627196127 -0.45778411971350763 -0.10128653567060553 0.22325668361408876 0.45141156773429481 -0.40629574176853256 -0.16317907696436362 -0.098269954614458796 -0.49884149031515485 -0.078582110688288451 -0.025019162467636271 0.18564764460894795 0.12828117391166 -0.12951827991806578 -0.57351243625230164 0.085344039393112803 -0.22058993944112837 -0.6875638651219188 0.087496292893045266 -0.77354574406890853 -0.20598581521231421 0.38280988339865807 0.0085297037524780864 0.71071471256159569 0.0047366278443409758 -0.4259556269860672 0.54631124229595485;-0.03648241072587674 0.12474712555112313 -0.036379754107888018 0.013488273831995747 -0.037327351298230338 0.071107232023843323 -0.072236064478365558 0.046613173611125214 -0.034869598954960793 -0.010743567423796258 0.10534497006136144 -0.037311424408485436 -0.019713870203465707 0.025284882859077484 -0.014580597315451032 0.0014649092295536451 0.045447068256123234 -0.011200902965366917 0.04001248694221235 -0.036862806540335129 -0.029091044759525234 0.08235330450126116 0.0074466621008250009 -0.0048305019710715227 0.011857871815234752 0.0047860309020378404 -0.049574381228089298 -0.022256709200935667 -0.015819274843758516 -0.027427594276776771 0.10302180052806674 0.037313898822511946 -0.092882434607659631 0.0026435911654071323 -0.046520360267829942 0.021300659715713089 0.049194104191985562 0.02389371750042402 0.11046987989701765 -0.032908768374696133 -0.024505230061298719 -0.034481173732875917 0.015870394147503703 -0.039947025350303013 0.03901104416116747 -0.039082854273126209 -0.005378011943505197 -0.033354458672105972 0.036228324518748072 0.033264519485654585;-0.069188050016173855 0.021012367383374059 0.054927079418072136 0.019859899083517762 -0.066033620103123775 0.025596568049300536 0.025860244417300633 -0.022743672248186107 -0.024359946732380452 0.069755391268516487 -0.026637019877630959 -0.06039718967840435 0.080948345757668863 0.0045018429618857237 -0.002334218503837492 -0.074229444427834079 0.00056252058673477215 -0.022474478266469779 -0.039214040982034251 -0.10913207798922971 -0.027109571242961233 0.079080090142476356 0.038410155046122572 0.0066411888818415166 -0.090479922305095772 -0.027570801034337379 0.011305204227087319 0.066062641225636626 0.037257850954866396 -0.005061573376303352 -0.00098515327316740374 0.041019850518082338 -0.0017039386675867108 -0.0040849244732730694 0.02365815673483657 0.078233042695069657 -0.10337559329227929 0.047995906435432514 -0.014397274055915135 -0.11244331475997628 -0.063549709295737014 -0.065282216814974911 0.079560425893732523 0.025983297731154063 0.051199007285147709 0.11820498696397162 -0.022301830928111086 -0.008204816353590336 0.021258793397901363 0.013646434040196956;0.28646700945571141 -0.090232736155438642 0.33759523246639989 -0.25619531350600222 0.088420120291770724 -0.46675747438142751 -0.70024379040620732 -0.26518411171092104 -0.47234187700118979 0.12141241536684742 -0.24250165143912392 0.19709502207120172 -0.38234445621587393 -0.49025613821749531 0.0069463839183264995 -0.92627524566049479 0.15718661749871646 1.2579918265677092 -0.38542632892656109 -0.5156156400353441 -0.54470228213873795 -0.7118098035110868 0.63266385389086688 -0.19398588077046441 -0.12933351185001596 0.67322966106049975 -0.45607589981940616 0.27190002299559862 0.03476991790490952 0.73490301774854216 0.13840924643803049 0.50764626715450767 1.3591008169024252 0.60419140180186959 0.13327207365674884 0.42865026606586804 -0.019809749494633631 -0.85285277283068883 0.27290412628590027 1.1782205284325671 -0.09804881514500341 0.2600742078902839 0.19049552216623372 1.4697094179264665 0.27645042909485912 -0.092556155166553938 -0.77488715001957564 -0.087476582493533989 -0.28739264504562761 0.21215736079242342;0.032140742091779466 -0.3178880248657896 0.24578984145418489 -0.27821851013571125 -0.023939117356697827 -0.27884746278119876 -0.61330116695291492 -0.17420777291292566 -0.44280795820355801 0.28516918613970421 -0.30635987728955866 0.052585490109715631 -0.40223894713913866 -0.36662671951592762 -0.046220789236096314 -0.63724839101044173 -0.069853336329922994 0.89638376532852126 -0.46683946658795727 -0.41432549647524752 -0.35488030151203481 -0.62573949171016674 0.6816296502795931 -0.10789721559974845 0.063835078854129562 0.49125114479347115 -0.44121412287589606 0.29818159886916723 0.12109554896056499 0.57533686984661159 0.24831888888580897 0.34165416628950424 0.94178480485407901 0.56251190442587307 0.006442166398310193 0.24309717544935236 -0.22273292915714185 -0.77817703266796723 0.11548608350487673 1.0146270087324754 -0.12352485380249736 0.10617326818029917 0.093933511654189006 1.2892452643799854 0.28100026056470601 0.050568896431696181 -0.93985844866068591 0.09571834160765201 -0.068801552149557896 0.025280577434336718;-0.63114726703735635 0.51070885324363913 0.61597920910937032 -0.40838285991195811 -0.39695444695652565 0.3126748783399847 -0.029245925421177443 0.39825346700058428 -0.078559294302179145 -0.10181563614222959 -0.01038156769900541 0.38951339823156444 0.18397683748029908 0.74860979967366981 0.31876412909915913 0.6109202670905528 0.27960795339226191 -0.75103216262654082 0.075601944396010839 -0.012050807927363431 -0.49851960869692136 -0.16510156463743086 0.78784914453254307 -0.032493618170824072 -0.70822271595282704 0.25986395068517754 -0.33753815671176385 0.12812558408780889 0.27624362932536761 0.13679166120991618 0.2480005971546918 -0.24883460148450326 -0.12463333572873954 0.11422473327301912 0.84783702915218817 -0.19028009093055295 -0.14180639029494721 -0.16789929772893811 1.0478874076599485 -0.78729191624775496 -0.55161009178789067 0.38241751161281501 0.10122746065615941 -0.49195601521701493 0.02332773787148127 -0.40733952903452375 0.83761087706739823 0.10657496437909904 0.050752688591995561 0.57807402226199178;0.0023198486547219305 0.00059502456299675055 -0.011434736055863658 0.017005114324577467 -0.020608301098783664 -0.00099438987787955554 0.0072275063237243796 -0.016012478944130746 -0.053556437841249076 0.0025432081063060863 -0.011355312736066457 -0.013136325615962625 -0.0037747480326475796 -0.0029604830424629193 0.0028623071333798394 -0.0063849166013360348 -0.030480200735208227 0.006101140205075844 -0.029301756079380827 -0.020893089580357706 0.013572188104567881 0.012655028746406031 0.017281941851373016 -0.018117550598628122 0.0075841575914357634 -0.0017479284541674503 -0.0071070781186566723 0.019819963143676591 0.00047274344394931467 0.019588927084168317 0.026878594154770008 0.0035359705612948984 -0.018090269386487254 -0.0031928064557610498 -0.027574123165725387 0.025201695329388797 -0.029135455204036598 -0.014103069322857797 -1.1854821911222222e-05 0.010751274672276346 -0.0094413453315808568 0.022922059398601213 -0.010440014360192843 0.0046185993238192181 0.012342155137859896 0.024807243317897444 -0.0049076208511069537 0.016810617775078408 0.007057891106332626 0.0069028820592022498;0.046279450938505003 -0.25293996876794944 0.27393951735162148 -0.021418359587144734 -1.0138441387946582 -0.23086538223869826 -0.44353874707779334 -0.53785326984667814 0.12222740808737954 0.64219337863060633 -0.34003392458233839 0.099326645886072693 0.48642620958550031 -0.046206248123791281 -0.031880714677629894 -0.98087975480173684 -0.59418116295232826 -0.55044278624126197 0.086000395145991018 -0.52239615351553026 -0.61810305103001573 0.18176396662240618 0.4170573035942986 0.50697316470196074 -0.83366995662005161 -1.0577466559368089 0.5091793008307266 0.63887363903629246 -0.37119541642965287 -0.04585265247477846 0.12148986824555234 -0.39397853292054097 0.23208987259734948 0.1326031491291432 -0.03878455167741586 0.10961567612876084 0.30151850300193594 0.11023173696214113 0.030863893001035678 -0.6641927098858833 0.15491409687904389 0.38214760752317967 0.52517437420890067 0.00012988265839997571 0.54095900345307313 0.034464584726684726 -0.52795995229908255 -0.33147195762897314 -0.2044228418588884 -0.55957022568201698;-0.32311634125953409 -0.48716200615869432 0.15543342878573196 -0.42438483645764807 -0.35573410813114992 0.16026756509960041 -0.13283948994629452 -0.29766456264228847 -0.65038094256382806 -0.25652454553898135 -0.01965386937865023 0.017014479333563075 -0.17794683038141587 -0.25011115073723739 0.37025186383023306 0.17803591630355139 0.050001279775041603 0.19352669160633001 0.71243162234644064 0.39376694656912009 0.088998199851265697 0.145908293530672 0.16920597517365346 -0.40359791684771523 0.246587276006873 -0.3219345515537978 0.47601522866818707 0.37576137918640706 0.087826736632603403 -0.0016967377943313908 -0.26751854174297762 -0.48577841531009502 0.11226529487481006 0.27782641329864755 -0.20306665901538909 0.24057267428052739 0.68648688110867007 -0.25976476364508727 0.29615455584064804 0.12307220569516179 -0.42329275577235881 -0.0250376887700435 -0.029178472863488601 0.1668815260504655 -0.1138024963891491 -0.27183389521018009 -0.38388724443350586 0.18486464854282667 0.52335363590494177 -0.1232007656089508;0.59772593162333831 -0.14501782335256605 0.18198513594092214 -0.43758840815426592 -0.15466960043566286 0.82385999301753055 0.039813191220091304 0.41628894932467775 -0.54741678960405205 0.39439197460126274 1.2325630835755375 -0.28775185178388896 -0.10647609205421106 -0.87993768743749368 -0.36552520516947234 -0.26664901197341223 0.77976149583531851 0.48144391781987356 0.17144954038948301 -0.44301151641244818 -0.33159140591396269 -0.28319790487060997 0.71796814655813601 0.11696616309770601 0.00041393029681633336 -0.24703197363679569 -0.34474338789061565 -0.38902349825090893 -0.18953140802047874 0.053587966403984867 0.80353414561897851 0.54815797036266767 -0.19359721089840176 -0.46464203443755481 0.11937969067446523 -0.74030238382236269 0.92421989028188456 0.028048847046913742 -0.72521619718696806 -0.41231639174530277 0.26274656308518252 -0.018379198201266475 0.40319831205818019 -0.079099668640804838 -0.22871108578724386 -1.3972399273239244 0.076444740636323449 0.052109417849236436 -0.6382319937090779 0.42950847918960927];
  
  % Layer 2
  b2 = [0.049468797265800432;0.45976112169705963;0.63203787014497703;0.26624989482694483;0.85692220633140115];
  LW2_1 = [0.0068493170375141868 -0.55790020119142736 -0.009411491577470437 -0.020086720153353114 -0.55230961124345257 -0.0092250950254396443 -0.0007849863565680534 -0.0070700747617204697 -0.003764660188177327 -0.012568288708300696 0.0010363326968096868 0.01034432409282412 -0.0015930609464754318 1.2623278347428704 -0.13657659317278786 -0.0040347679083574837 0.90059430722511824 0.00074011928789786995 -0.73228742954035864 0.00070854094417164626;0.02962949298439432 -0.14445240515268354 -0.034860407199263269 -0.11602009158479513 -0.032441463522743748 -0.034773795556278304 -0.10430465220363314 -0.11101703134320248 -0.030338206269979451 -0.054044095669957638 0.0083797550625849572 0.114419118361241 -0.048231786232898984 -0.21997709566336357 0.35002627835132516 -0.013677096723281008 -0.00042097392884245027 0.0051298061980630701 -0.020745252814135959 -1.2716840869990562;1.8389979801462037 0.20930618170893273 -1.4023046839755073 -0.33439215787653326 -0.10228892895074548 -2.2037386847316998 -0.74072295935261301 -0.43609101010829132 0.014872007067816915 -1.9094588776665 -0.0095899377379817363 2.1135379494187179 -2.7866285674316109 -0.012568612187658196 0.033053067557245179 -0.014820063340477575 0.20641810722301435 1.3827237102133798 -0.13718871877927372 -0.005890286989895856;0.048122687783537552 -1.7438863057085525 -0.20250171480835186 -2.172543594705699 -0.20278444978001373 -0.011408819708774899 -1.7391149279167903 -1.9148913211649004 -1.8841501650296759 -0.4556636975170405 0.49095223987045655 1.5252745619326151 -0.017364002193054975 0.021816729270721161 0.010242758088076691 -0.036287440067944168 -1.5229421072054068 0.010753102335894361 -0.26292332561082288 -0.013810285410479456;0.69948453674013111 0.42842809349497779 -0.5026186048238237 0.25493076827242117 0.2419659483594892 -0.83533837383848142 0.018095133002270964 0.16803719923381216 -0.029514554728399298 -0.65526948389588813 0.014539930369786073 0.54014861606839004 -1.0523937582379383 -0.012831153709645026 0.021354925301762966 -0.98764825949117296 0.25376247508955418 0.073035718810535097 0.89279282957135608 -0.0075218373383221593];
  
  % Output 1
  y1_step1_ymin = -1;
  y1_step1_gain = [0.000116795146649246;0.00164853773524591;0.00128816240696055;0.00120518279606851;0.00164069031216927];
  y1_step1_xoffset = [0.00078104;0.0036277;0.00073985;0.00070535;0.00090848];
  
  % ===== SIMULATION ========
  
  % Dimensions
  Q = size(x1,2); % samples
  
  % Input 1
  xp1 = mapminmax_apply(x1,x1_step1_gain,x1_step1_xoffset,x1_step1_ymin);
  
  % Layer 1
  a1 = tansig_apply(repmat(b1,1,Q) + IW1_1*xp1);
  
  % Layer 2
  a2 = repmat(b2,1,Q) + LW2_1*a1;
  
  % Output 1
  y1 = mapminmax_reverse(a2,y1_step1_gain,y1_step1_xoffset,y1_step1_ymin);
end

% ===== MODULE FUNCTIONS ========

% Map Minimum and Maximum Input Processing Function
function y = mapminmax_apply(x,settings_gain,settings_xoffset,settings_ymin)
  y = bsxfun(@minus,x,settings_xoffset);
  y = bsxfun(@times,y,settings_gain);
  y = bsxfun(@plus,y,settings_ymin);
end

% Sigmoid Symmetric Transfer Function
function a = tansig_apply(n)
  a = 2 ./ (1 + exp(-2*n)) - 1;
end

% Map Minimum and Maximum Output Reverse-Processing Function
function x = mapminmax_reverse(y,settings_gain,settings_xoffset,settings_ymin)
  x = bsxfun(@minus,y,settings_ymin);
  x = bsxfun(@rdivide,x,settings_gain);
  x = bsxfun(@plus,x,settings_xoffset);
end
